#include "model_params.h"

const float LR_WEIGHTS[LR_NUM_FEATURES] = {
    -2.65910159e-02f, -1.87106396e+00f, 2.91563074e-01f, 4.09012110e-01f, 
    3.22893119e+00f, 3.90967591e-01f, 1.56339820e+00f, 2.32071875e+00f, 
    -2.19098019e-01f, 1.35833635e+00f, -7.30824298e-01f, 9.52427483e-01f, 
    2.06087862e+00f, -5.63082582e-01f, -1.68397158e-01f, 2.58379144e-01f, 
    6.89381451e-01f, -1.20963823e+00f, 5.89474768e-01f, 6.51533130e-01f, 
    -4.39082825e-01f, 5.25921258e-01f, -3.84144430e-01f, -2.26182980e-01f, 
    5.84212412e-01f, 6.20038749e-01f, -4.18287087e-02f, 6.08236878e-01f, 
    5.56038756e-02f, -1.14536111e+00f, 2.77600816e-02f, -2.37335684e-01f, 
    -1.94378410e-03f, 1.47542512e-01f, -2.97549634e-01f, -1.87918271e-01f, 
};

const float LR_MEAN[LR_NUM_FEATURES] = {
    -2.33893300e-01f, 4.39911700e-01f, -1.02603520e+00f, 5.72846800e-01f, 
    -3.26455470e+00f, 3.52850320e-01f, -3.90704350e+00f, -2.59290900e+00f, 
    -5.33792500e-01f, 3.53940370e-01f, -1.17821820e+00f, 1.16636520e-01f, 
    8.60435660e-01f, 2.07430290e-01f, 4.72610030e-01f, 1.25369520e+00f, 
    2.99905780e-01f, 1.54404010e-01f, 4.51305000e-03f, 6.03914440e-01f, 
    2.28882500e-01f, 1.71680900e-02f, 1.99829160e-01f, 2.59447600e-01f, 
    2.32030960e-01f, 1.74697100e-02f, 2.02243800e-01f, 2.61882250e-01f, 
    4.60852350e-01f, 2.92950500e-02f, 4.11230530e-01f, 5.11381100e-01f, 
    -2.68331300e-02f, 6.48344700e-02f, -1.37816190e-01f, 8.48895700e-02f, 
};

const float LR_STD[LR_NUM_FEATURES] = {
    5.59622200e+00f, 7.21109100e-01f, 5.68252130e+00f, 5.65418620e+00f, 
    3.29197200e+00f, 4.72383200e-01f, 3.56873500e+00f, 3.25002460e+00f, 
    4.64422460e+00f, 5.63596840e-01f, 4.71298900e+00f, 4.68410350e+00f, 
    1.43980430e+00f, 3.27207400e-01f, 1.67657650e+00f, 1.48416290e+00f, 
    1.26598580e+00f, 2.18399750e-01f, 1.33894110e+00f, 1.29018470e+00f, 
    1.49529100e-01f, 2.17557300e-02f, 1.47868470e-01f, 1.53622240e-01f, 
    1.35813070e-01f, 2.26825500e-02f, 1.36419360e-01f, 1.38482240e-01f, 
    2.33647850e-01f, 3.82578000e-02f, 2.38395960e-01f, 2.33548060e-01f, 
    3.96758300e-01f, 1.04791510e-01f, 4.17463360e-01f, 4.31149100e-01f, 
};

const float LR_BIAS = -2.89514602e+00f;
